{
    "hidden_layer": {
        "neuron_0": {
            "weights": [
                -0.31661281905089983,
                0.18269645844527477,
                -0.40068587337557066,
                -0.43622013670698656,
                -0.39316564382639113,
                -1.1628665253688948,
                -0.3135224363718849,
                -0.3202053889900659,
                -0.845073975683681,
                -0.9050483654221958,
                0.6004285628945573,
                0.6608452123212403
            ],
            "bias": 1.0252451373593001
        },
        "neuron_1": {
            "weights": [
                0.8814112653616314,
                0.4123197617693343,
                0.05337441954775478,
                0.4932359347240964,
                1.0005869600400115,
                -0.1011883109931128,
                -0.7218332201646049,
                -0.5164453047791584,
                -0.0061499648991562746,
                0.6667562009631802,
                0.20398739136980645,
                -0.0836925791998636
            ],
            "bias": -0.46079425791650125
        },
        "neuron_2": {
            "weights": [
                0.40849957849811114,
                -0.9812201793864742,
                -0.18153329046654026,
                -0.49781558736883497,
                0.5964156149633675,
                -0.8213641696393731,
                1.0490280436593045,
                -1.2744314793735492,
                -0.6082927619202846,
                0.35584325365464503,
                -0.36390976999773855,
                -0.789567799135616
            ],
            "bias": -0.4476475614877366
        },
        "neuron_3": {
            "weights": [
                0.16646700149272095,
                0.6363999622282968,
                -0.28873923207436747,
                0.7519602818713937,
                -1.117663962462576,
                1.6768629882975632,
                1.4084878308622284,
                -1.7985007371436377,
                1.4626161456480788,
                0.06448266129704319,
                -0.726478805417317,
                0.2302318417988228
            ],
            "bias": -0.5584069695278177
        },
        "neuron_4": {
            "weights": [
                -0.25600952310387604,
                0.7017106902471492,
                0.32527894619492026,
                1.3116308286130864,
                -1.8013098486784087,
                0.8500488351265508,
                2.2114867550549318,
                -1.5771498674121678,
                0.48159015928606286,
                0.3700582510557176,
                0.04336078697745704,
                0.6204105827132055
            ],
            "bias": -1.0810806539817106
        },
        "neuron_5": {
            "weights": [
                -0.6988184381698309,
                -0.6164550148598995,
                -0.7366580856536622,
                -0.9582618420060927,
                -0.7843016274997414,
                0.27347612837664703,
                0.7380862605239766,
                -0.44092471706617725,
                0.9222054328697136,
                -0.8670016323299926,
                -0.39219761388346075,
                0.10935480388335565
            ],
            "bias": -0.8691105234421157
        },
        "neuron_6": {
            "weights": [
                -0.9397492842486268,
                -0.6655436161461361,
                -0.41087853712192013,
                -0.10701786541345898,
                0.7329272776711695,
                -0.7465152662652408,
                -0.17413746082188378,
                1.041942938371073,
                0.17455212014926133,
                -0.17232053127565425,
                0.30274618966955835,
                0.41303718453466687
            ],
            "bias": -0.27271474728019324
        },
        "neuron_7": {
            "weights": [
                0.6828656899486703,
                -0.501816289516592,
                -0.19170710733489552,
                -1.0087440651317277,
                0.6873175832156871,
                -0.3811676031966827,
                0.422444824493925,
                0.549967342049694,
                -1.0238722824839634,
                -0.5415348547780656,
                0.2569482364234958,
                -0.038031699461810904
            ],
            "bias": -0.13156760311831153
        }
    },
    "output_layer": {
        "neuron_0": {
            "weights": [
                1.08163646328114,
                0.48912534226128157,
                0.2345229712937844,
                -4.623779576636171,
                -5.256248629110558,
                -0.11298526333416142,
                1.3389165840249846,
                1.5970874226968852
            ],
            "bias": 2.8618654218938717
        }
    }
}